digraph Tree {
node [shape=box] ;
0 [label="X[0] <= 0.003\ngini = 0.196\nsamples = 31659\nvalue = [28168, 3491]"] ;
1 [label="gini = 0.0\nsamples = 3491\nvalue = [0, 3491]"] ;
0 -> 1 [labeldistance=2.5, labelangle=45, headlabel="True"] ;
2 [label="gini = 0.0\nsamples = 28168\nvalue = [28168, 0]"] ;
0 -> 2 [labeldistance=2.5, labelangle=-45, headlabel="False"] ;
}
